digraph Tree {
node [shape=box] ;
0 [label="X[0] <= 0.933\ngini = 0.498\nsamples = 5328\nvalue = [2515, 2813]"] ;
1 [label="X[0] <= -0.943\ngini = 0.498\nsamples = 5130\nvalue = [2404, 2726]"] ;
0 -> 1 [labeldistance=2.5, labelangle=45, headlabel="True"] ;
2 [label="X[0] <= -0.947\ngini = 0.476\nsamples = 46\nvalue = [28, 18]"] ;
1 -> 2 ;
3 [label="X[0] <= -0.973\ngini = 0.497\nsamples = 39\nvalue = [21, 18]"] ;
2 -> 3 ;
4 [label="X[0] <= -0.977\ngini = 0.32\nsamples = 5\nvalue = [4, 1]"] ;
3 -> 4 ;
5 [label="X[2] <= 0.5\ngini = 0.5\nsamples = 2\nvalue = [1, 1]"] ;
4 -> 5 ;
6 [label="gini = 0.0\nsamples = 1\nvalue = [0, 1]"] ;
5 -> 6 ;
7 [label="gini = 0.0\nsamples = 1\nvalue = [1, 0]"] ;
5 -> 7 ;
8 [label="gini = 0.0\nsamples = 3\nvalue = [3, 0]"] ;
4 -> 8 ;
9 [label="X[0] <= -0.969\ngini = 0.5\nsamples = 34\nvalue = [17, 17]"] ;
3 -> 9 ;
10 [label="X[0] <= -0.972\ngini = 0.278\nsamples = 6\nvalue = [1, 5]"] ;
9 -> 10 ;
11 [label="gini = 0.5\nsamples = 2\nvalue = [1, 1]"] ;
10 -> 11 ;
12 [label="gini = 0.0\nsamples = 4\nvalue = [0, 4]"] ;
10 -> 12 ;
13 [label="X[1] <= 0.5\ngini = 0.49\nsamples = 28\nvalue = [16, 12]"] ;
9 -> 13 ;
14 [label="X[0] <= -0.953\ngini = 0.469\nsamples = 24\nvalue = [15, 9]"] ;
13 -> 14 ;
15 [label="gini = 0.391\nsamples = 15\nvalue = [11, 4]"] ;
14 -> 15 ;
16 [label="gini = 0.494\nsamples = 9\nvalue = [4, 5]"] ;
14 -> 16 ;
17 [label="X[0] <= -0.964\ngini = 0.375\nsamples = 4\nvalue = [1, 3]"] ;
13 -> 17 ;
18 [label="gini = 0.0\nsamples = 1\nvalue = [1, 0]"] ;
17 -> 18 ;
19 [label="gini = 0.0\nsamples = 3\nvalue = [0, 3]"] ;
17 -> 19 ;
20 [label="gini = 0.0\nsamples = 7\nvalue = [7, 0]"] ;
2 -> 20 ;
21 [label="X[1] <= 0.5\ngini = 0.498\nsamples = 5084\nvalue = [2376, 2708]"] ;
1 -> 21 ;
22 [label="X[0] <= 0.903\ngini = 0.496\nsamples = 3229\nvalue = [1478, 1751]"] ;
21 -> 22 ;
23 [label="X[0] <= -0.225\ngini = 0.497\nsamples = 3115\nvalue = [1437, 1678]"] ;
22 -> 23 ;
24 [label="X[0] <= -0.247\ngini = 0.492\nsamples = 991\nvalue = [431, 560]"] ;
23 -> 24 ;
25 [label="X[0] <= -0.624\ngini = 0.493\nsamples = 980\nvalue = [430, 550]"] ;
24 -> 25 ;
26 [label="gini = 0.497\nsamples = 500\nvalue = [232, 268]"] ;
25 -> 26 ;
27 [label="gini = 0.485\nsamples = 480\nvalue = [198, 282]"] ;
25 -> 27 ;
28 [label="X[0] <= -0.232\ngini = 0.165\nsamples = 11\nvalue = [1, 10]"] ;
24 -> 28 ;
29 [label="gini = 0.0\nsamples = 7\nvalue = [0, 7]"] ;
28 -> 29 ;
30 [label="gini = 0.375\nsamples = 4\nvalue = [1, 3]"] ;
28 -> 30 ;
31 [label="X[0] <= 0.597\ngini = 0.499\nsamples = 2124\nvalue = [1006, 1118]"] ;
23 -> 31 ;
32 [label="X[0] <= 0.513\ngini = 0.5\nsamples = 1190\nvalue = [589, 601]"] ;
31 -> 32 ;
33 [label="gini = 0.499\nsamples = 1042\nvalue = [502, 540]"] ;
32 -> 33 ;
34 [label="gini = 0.485\nsamples = 148\nvalue = [87, 61]"] ;
32 -> 34 ;
35 [label="X[0] <= 0.626\ngini = 0.494\nsamples = 934\nvalue = [417, 517]"] ;
31 -> 35 ;
36 [label="gini = 0.44\nsamples = 92\nvalue = [30, 62]"] ;
35 -> 36 ;
37 [label="gini = 0.497\nsamples = 842\nvalue = [387, 455]"] ;
35 -> 37 ;
38 [label="X[0] <= 0.905\ngini = 0.461\nsamples = 114\nvalue = [41, 73]"] ;
22 -> 38 ;
39 [label="gini = 0.0\nsamples = 9\nvalue = [0, 9]"] ;
38 -> 39 ;
40 [label="X[0] <= 0.906\ngini = 0.476\nsamples = 105\nvalue = [41, 64]"] ;
38 -> 40 ;
41 [label="gini = 0.0\nsamples = 3\nvalue = [3, 0]"] ;
40 -> 41 ;
42 [label="X[2] <= 0.5\ngini = 0.468\nsamples = 102\nvalue = [38, 64]"] ;
40 -> 42 ;
43 [label="gini = 0.375\nsamples = 28\nvalue = [7, 21]"] ;
42 -> 43 ;
44 [label="gini = 0.487\nsamples = 74\nvalue = [31, 43]"] ;
42 -> 44 ;
45 [label="X[0] <= 0.003\ngini = 0.499\nsamples = 1855\nvalue = [898, 957]"] ;
21 -> 45 ;
46 [label="X[0] <= -0.717\ngini = 0.5\nsamples = 780\nvalue = [402, 378]"] ;
45 -> 46 ;
47 [label="X[0] <= -0.779\ngini = 0.498\nsamples = 178\nvalue = [83, 95]"] ;
46 -> 47 ;
48 [label="X[0] <= -0.797\ngini = 0.5\nsamples = 126\nvalue = [64, 62]"] ;
47 -> 48 ;
49 [label="gini = 0.499\nsamples = 110\nvalue = [52, 58]"] ;
48 -> 49 ;
50 [label="gini = 0.375\nsamples = 16\nvalue = [12, 4]"] ;
48 -> 50 ;
51 [label="X[0] <= -0.764\ngini = 0.464\nsamples = 52\nvalue = [19, 33]"] ;
47 -> 51 ;
52 [label="gini = 0.245\nsamples = 14\nvalue = [2, 12]"] ;
51 -> 52 ;
53 [label="gini = 0.494\nsamples = 38\nvalue = [17, 21]"] ;
51 -> 53 ;
54 [label="X[0] <= -0.68\ngini = 0.498\nsamples = 602\nvalue = [319, 283]"] ;
46 -> 54 ;
55 [label="X[0] <= -0.683\ngini = 0.346\nsamples = 27\nvalue = [21, 6]"] ;
54 -> 55 ;
56 [label="gini = 0.386\nsamples = 23\nvalue = [17, 6]"] ;
55 -> 56 ;
57 [label="gini = 0.0\nsamples = 4\nvalue = [4, 0]"] ;
55 -> 57 ;
58 [label="X[0] <= -0.671\ngini = 0.499\nsamples = 575\nvalue = [298, 277]"] ;
54 -> 58 ;
59 [label="gini = 0.0\nsamples = 3\nvalue = [0, 3]"] ;
58 -> 59 ;
60 [label="gini = 0.499\nsamples = 572\nvalue = [298, 274]"] ;
58 -> 60 ;
61 [label="X[0] <= 0.249\ngini = 0.497\nsamples = 1075\nvalue = [496, 579]"] ;
45 -> 61 ;
62 [label="X[0] <= 0.158\ngini = 0.437\nsamples = 90\nvalue = [29, 61]"] ;
61 -> 62 ;
63 [label="X[0] <= 0.059\ngini = 0.488\nsamples = 45\nvalue = [19, 26]"] ;
62 -> 63 ;
64 [label="gini = 0.32\nsamples = 10\nvalue = [2, 8]"] ;
63 -> 64 ;
65 [label="gini = 0.5\nsamples = 35\nvalue = [17, 18]"] ;
63 -> 65 ;
66 [label="X[0] <= 0.177\ngini = 0.346\nsamples = 45\nvalue = [10, 35]"] ;
62 -> 66 ;
67 [label="gini = 0.0\nsamples = 10\nvalue = [0, 10]"] ;
66 -> 67 ;
68 [label="gini = 0.408\nsamples = 35\nvalue = [10, 25]"] ;
66 -> 68 ;
69 [label="X[0] <= 0.931\ngini = 0.499\nsamples = 985\nvalue = [467, 518]"] ;
61 -> 69 ;
70 [label="X[0] <= 0.931\ngini = 0.499\nsamples = 983\nvalue = [467, 516]"] ;
69 -> 70 ;
71 [label="gini = 0.499\nsamples = 982\nvalue = [466, 516]"] ;
70 -> 71 ;
72 [label="gini = 0.0\nsamples = 1\nvalue = [1, 0]"] ;
70 -> 72 ;
73 [label="gini = 0.0\nsamples = 2\nvalue = [0, 2]"] ;
69 -> 73 ;
74 [label="X[0] <= 0.936\ngini = 0.493\nsamples = 198\nvalue = [111, 87]"] ;
0 -> 74 [labeldistance=2.5, labelangle=-45, headlabel="False"] ;
75 [label="X[2] <= 0.5\ngini = 0.245\nsamples = 14\nvalue = [12, 2]"] ;
74 -> 75 ;
76 [label="gini = 0.0\nsamples = 6\nvalue = [6, 0]"] ;
75 -> 76 ;
77 [label="X[0] <= 0.935\ngini = 0.375\nsamples = 8\nvalue = [6, 2]"] ;
75 -> 77 ;
78 [label="X[0] <= 0.934\ngini = 0.48\nsamples = 5\nvalue = [3, 2]"] ;
77 -> 78 ;
79 [label="gini = 0.444\nsamples = 3\nvalue = [2, 1]"] ;
78 -> 79 ;
80 [label="gini = 0.5\nsamples = 2\nvalue = [1, 1]"] ;
78 -> 80 ;
81 [label="gini = 0.0\nsamples = 3\nvalue = [3, 0]"] ;
77 -> 81 ;
82 [label="X[0] <= 0.938\ngini = 0.497\nsamples = 184\nvalue = [99, 85]"] ;
74 -> 82 ;
83 [label="X[0] <= 0.936\ngini = 0.391\nsamples = 15\nvalue = [4, 11]"] ;
82 -> 83 ;
84 [label="X[0] <= 0.936\ngini = 0.245\nsamples = 7\nvalue = [1, 6]"] ;
83 -> 84 ;
85 [label="gini = 0.0\nsamples = 2\nvalue = [0, 2]"] ;
84 -> 85 ;
86 [label="gini = 0.32\nsamples = 5\nvalue = [1, 4]"] ;
84 -> 86 ;
87 [label="X[0] <= 0.936\ngini = 0.469\nsamples = 8\nvalue = [3, 5]"] ;
83 -> 87 ;
88 [label="gini = 0.0\nsamples = 1\nvalue = [1, 0]"] ;
87 -> 88 ;
89 [label="X[1] <= 0.5\ngini = 0.408\nsamples = 7\nvalue = [2, 5]"] ;
87 -> 89 ;
90 [label="gini = 0.0\nsamples = 2\nvalue = [0, 2]"] ;
89 -> 90 ;
91 [label="X[0] <= 0.937\ngini = 0.48\nsamples = 5\nvalue = [2, 3]"] ;
89 -> 91 ;
92 [label="gini = 0.5\nsamples = 4\nvalue = [2, 2]"] ;
91 -> 92 ;
93 [label="gini = 0.0\nsamples = 1\nvalue = [0, 1]"] ;
91 -> 93 ;
94 [label="X[0] <= 0.982\ngini = 0.492\nsamples = 169\nvalue = [95, 74]"] ;
82 -> 94 ;
95 [label="X[0] <= 0.966\ngini = 0.49\nsamples = 166\nvalue = [95, 71]"] ;
94 -> 95 ;
96 [label="X[0] <= 0.965\ngini = 0.497\nsamples = 135\nvalue = [73, 62]"] ;
95 -> 96 ;
97 [label="X[0] <= 0.965\ngini = 0.493\nsamples = 131\nvalue = [73, 58]"] ;
96 -> 97 ;
98 [label="gini = 0.495\nsamples = 129\nvalue = [71, 58]"] ;
97 -> 98 ;
99 [label="gini = 0.0\nsamples = 2\nvalue = [2, 0]"] ;
97 -> 99 ;
100 [label="gini = 0.0\nsamples = 4\nvalue = [0, 4]"] ;
96 -> 100 ;
101 [label="X[1] <= 0.5\ngini = 0.412\nsamples = 31\nvalue = [22, 9]"] ;
95 -> 101 ;
102 [label="X[0] <= 0.979\ngini = 0.33\nsamples = 24\nvalue = [19, 5]"] ;
101 -> 102 ;
103 [label="gini = 0.255\nsamples = 20\nvalue = [17, 3]"] ;
102 -> 103 ;
104 [label="gini = 0.5\nsamples = 4\nvalue = [2, 2]"] ;
102 -> 104 ;
105 [label="X[0] <= 0.969\ngini = 0.49\nsamples = 7\nvalue = [3, 4]"] ;
101 -> 105 ;
106 [label="gini = 0.0\nsamples = 2\nvalue = [2, 0]"] ;
105 -> 106 ;
107 [label="gini = 0.32\nsamples = 5\nvalue = [1, 4]"] ;
105 -> 107 ;
108 [label="gini = 0.0\nsamples = 3\nvalue = [0, 3]"] ;
94 -> 108 ;
}